{
  "layers": [
    {
      "activation": "sigmoid",
      "nodes": [
        {
          "weights": [0.557057, -0.389524, 0.145489, -0.451049, 0.229682, 0.5331, -0.439028, 0.354818, -0.789863, -0.85707, -0.0396481, 0.209765, 0.808075, -0.143701, 0.066629, -0.581553, -0.640032, 0.207513, 0.291109, -0.159368, -0.310012, -0.125783, 0.291821, -0.198612, -0.836576, 0.152854, 0.305771, -0.960025, -0.258533, -0.349604, 0.0273067, -0.709272, 0.158485, -0.827205, -0.160321, -0.604036, 0.713692, 0.400651, 0.742985, 0.916032, 0.543581, -0.296663, 0.125798, 0.351657, 0.465045, -0.909961, 0.762307, 0.919604, 0.297552, -0.0489706, -0.239764, 0.98754, 0.730656, -0.947943, -0.218868, 0.886283, 0.197114, -0.818506, -0.979151, 0.930785, -0.270497, 0.0481552, -0.778488, 0.887987],
          "bias": 0.0969021
        },
        {
          "weights": [0.0611912, -0.723845, -0.0731543, -0.538158, -0.98086, -0.157122, -0.994577, -0.277523, 0.866288, 0.349284, -0.717887, 1.1155, -0.0379659, -0.798283, 0.253878, -0.93738, -0.0458441, 0.233622, 0.944653, -0.151141, -1.1348, 0.830935, -0.80447, -0.803753, 0.692611, -0.873685, -0.38298, -0.567964, -0.80173, -0.0270893, 0.961716, 0.409018, 0.0898922, -0.111438, 0.87086, -0.0405251, 0.581883, 0.876284, 0.831508, 0.597728, 0.225567, -0.886379, 0.713228, -0.812399, -0.993393, -0.192067, -0.600221, 0.269494, -0.958445, -0.814742, -0.881648, -1.09325, 0.707463, -0.686117, -0.747444, 0.549631, -0.410246, 0.178306, -0.709603, -0.0624186, 0.992043, -0.747887, -0.653401, 0.0819355],
          "bias": 0.969634
        },
        {
          "weights": [-0.78254, -0.809033, -0.127885, -0.906256, -0.977524, -0.530158, 0.319311, -0.863903, -0.976103, 0.656469, -0.548566, 0.00215819, -0.704262, 0.720928, -0.126615, -0.758494, 0.988837, -0.070307, -0.731145, -0.308233, 0.421739, 0.818485, 0.0420315, -0.639445, 0.938554, 0.979613, -0.57824, -0.740172, -0.434298, 0.604862, 0.331341, -0.456328, 0.625501, -0.796544, -0.362584, 0.887467, -0.0872117, 0.956726, 0.784074, -0.302805, 0.613196, -0.764492, 0.699353, 0.908934, 1.0256, -0.597591, 0.91095, 0.945273, 0.332102, -0.990524, -0.36296, -0.246159, 0.897123, 0.679072, -0.125094, 0.596187, 0.419195, 0.227504, 0.786853, 0.745407, -0.337963, 0.118194, -0.710921, -0.712462],
          "bias": 1.06792
        },
        {
          "weights": [-0.0735053, 0.935515, 0.994948, -0.116779, 0.719589, -0.307857, -0.503583, 0.955097, -0.778832, -0.83414, 0.911533, -0.330562, -1.02434, 0.856806, 0.95568, -0.913714, -0.745644, -0.529969, 0.789779, 0.592783, 0.243783, 0.385966, 0.113132, -0.427559, 0.126958, -0.141461, 0.0874632, -0.901863, 0.0464635, 0.567877, 0.566803, -0.925887, 0.457532, 0.561751, -0.042666, 0.0759658, -0.84726, 0.453751, 0.132217, -0.524937, 0.619611, 0.0437497, 0.144501, 0.595266, -0.24646, 0.0543207, 0.782707, 0.154911, 0.524352, 0.526626, -0.252306, -0.231865, -0.234424, 0.860827, 0.441731, 0.993689, -0.17948, -0.323791, -0.761159, 0.968139, -0.801774, 0.805644, -0.957749, 0.655758],
          "bias": 0.219126
        },
        {
          "weights": [-0.000414568, -0.167122, 0.621289, -0.546664, 0.965095, -0.903648, -0.927053, 0.00884488, 0.194993, 0.769368, 0.9094, -0.59523, 0.559266, 0.0643117, 0.773666, 0.0787005, 0.913161, -0.357045, 1.10089, 0.882333, -0.908123, 1.09458, -0.304337, -0.239105, -0.822038, -0.336199, -0.189145, 0.835341, -0.286756, -0.229666, 0.351001, 0.705638, 0.447756, -0.0277095, -0.841026, 0.420043, 0.0758338, -0.768078, -0.578304, -0.736365, -0.99871, -0.668903, -0.331595, 0.560556, 0.247143, -0.713385, -0.367935, 0.308569, -0.0704303, -0.422503, 0.190902, 0.0214466, -0.476192, 0.886565, 0.77515, -0.305421, -0.456825, -0.265729, -0.321815, 0.249228, 0.349149, -0.970814, -0.0451338, -0.203095],
          "bias": -0.0621282
        },
        {
          "weights": [0.113841, -0.790243, -0.929881, 0.345762, -0.368547, -0.666245, 0.347052, -0.03745, -0.153297, -0.0995833, -0.642042, 0.0482326, 0.764665, 0.666527, -0.937112, -0.890022, -0.149761, 0.0771433, -0.45849, -0.0382039, 0.0844769, 0.236089, 0.272788, 0.586564, 0.999359, -0.477984, 0.252982, -0.654186, 0.709066, 0.647533, 0.0300209, -0.409277, 0.942376, 0.10014, 0.936485, -0.193988, 0.666078, 0.283537, 0.536379, -0.719402, -0.816046, 0.894337, 0.328831, 0.948619, 0.878133, 0.476804, 0.826414, -0.588897, -0.446053, -0.546991, 0.3729, 0.638424, 1.00637, -0.354312, -0.00719481, 0.773542, -0.0644797, 0.928519, 0.802087, -0.587597, 0.661137, -0.167892, 0.00312546, 0.603513],
          "bias": 1.37177
        },
        {
          "weights": [-0.0603895, -0.822658, 0.366142, -0.776852, 0.713721, 0.64674, -0.592899, 0.608058, 0.0606563, -0.876463, 0.168922, -0.605928, 0.925751, 0.580026, 0.0914074, -0.59704, -0.279258, -0.502352, -0.966244, 0.110047, 0.466254, 0.807298, -0.930233, 0.418972, 0.752773, -0.517831, 0.199298, -0.295931, 0.461095, -0.459766, -0.482871, -0.575095, -0.139036, 0.883271, -0.351947, -0.449515, 0.505812, 0.0551537, -0.817257, -0.409332, 0.17869, 0.351665, -0.01526, 0.104442, 0.0508791, -0.780465, 0.531601, 0.652433, -0.282816, 0.708745, -0.237521, -0.816563, 0.635231, -0.167754, 0.626609, 0.412203, 0.338615, -0.293282, 0.997084, -0.176091, 0.390341, -0.485787, 0.248814, -0.748695],
          "bias": -0.809741
        },
        {
          "weights": [0.896867, -0.17401, 0.927495, -0.0479795, 0.00873221, -0.481837, -0.869289, -0.639603, 0.646291, 0.259352, 0.292088, 0.62586, -0.160234, -0.0554795, -0.416991, -0.500302, 0.731199, -0.209354, -1.08084, -0.363542, -0.533932, 0.331365, 0.926259, 0.123974, 0.568415, -0.249832, -0.196907, -0.628593, 1.0478, -0.474347, -0.519888, 0.895849, 0.591609, -0.592393, -0.15213, -0.350846, -0.0254174, -0.0214191, -0.0392617, -0.42794, -0.762067, -0.747174, -0.80208, 0.077699, 0.486125, 0.0208956, 0.528584, -0.0714541, 0.811542, 0.687712, 0.565004, -0.72239, 0.307856, 0.491263, 0.352771, -0.172541, -0.807381, 0.867085, -0.089913, -0.808399, -0.367295, 0.390199, -0.912549, -0.775686],
          "bias": 1.17686
        },
        {
          "weights": [-0.0646795, -0.175345, -0.276425, 0.913901, 0.785393, 0.295636, -0.848166, -0.961781, 0.733522, 0.180721, 0.235566, -0.208119, -0.318259, -0.835888, -0.43404, -0.602983, 0.680303, -0.205243, 0.693523, 0.0951893, -0.880036, -0.479018, 0.315371, -0.985387, 0.393606, 0.506972, -0.417709, -0.281222, 0.56686, -0.0909048, -0.41839, -0.470257, 0.696287, 0.305186, -0.556355, 0.454117, -0.426742, -0.404521, 0.519899, -0.665656, 0.7762, -0.244535, 0.126225, -0.542059, -0.14545, 0.654721, -0.117479, -0.40012, -0.550522, -0.461419, 0.695069, -0.430558, -0.00546389, 0.0104405, -0.388381, -0.584295, -0.455024, 0.258937, 0.19951, -0.860601, -0.869432, 0.78112, -0.330857, 0.826855],
          "bias": 0.413797
        },
        {
          "weights": [0.112788, 0.308535, 0.687128, 0.708267, -0.171565, -0.978528, 0.484467, 0.5839, 0.110233, 0.969971, -0.496523, -0.12651, -0.073066, 0.103357, 0.214431, 0.391072, -0.17401, 0.811437, -0.478292, 0.938437, -0.502502, -0.0625869, -0.59103, 0.681992, -0.971613, -0.45163, 0.778467, 0.775414, 0.291955, 0.747952, -0.104186, -0.6697, -0.052049, -0.417059, -0.961433, 0.850828, -0.321144, 0.523034, 0.360286, 0.714646, 0.493004, 0.863763, -0.411865, -0.580062, -0.0669728, 0.69403, 0.736568, 0.793111, 0.505467, -0.85026, 0.731547, 1.00296, 0.0530593, -0.859482, 0.610514, 0.0070038, -0.385555, 0.423075, -0.183489, 0.831957, 0.0624904, 0.712325, -0.837742, -0.989559],
          "bias": -0.977431
        },
        {
          "weights": [-0.799175, 0.786827, -0.100321, 0.723858, 0.147113, -0.385675, 0.216862, 0.0108764, 0.0939242, 0.562358, 0.977997, -0.368067, 0.519273, 0.771108, -0.706579, 0.448666, 0.428213, -0.778056, -0.728739, 0.714635, 1.0528, 0.278265, -0.891267, 0.255532, -0.749203, 0.94069, -0.305609, 1.33949, -0.676705, -0.827557, -0.741612, -0.696228, -0.884709, 0.158068, -0.97237, 0.482751, 0.992739, 0.244493, -0.726719, -0.133683, -0.193149, -0.748722, 0.49825, -0.673876, -0.601246, 0.947693, 0.554442, 0.450598, -0.830364, 0.981725, 0.165233, -0.777559, 0.636358, 0.273966, 0.257626, 0.666808, -0.00569051, 0.575649, 0.62993, 0.0972574, 0.904113, 0.888319, 0.40103, -0.980595],
          "bias": 0.273301
        },
        {
          "weights": [0.42866, 0.281809, -0.181221, -0.326847, 0.55509, 0.685096, 0.480004, 0.806368, 0.339367, 0.585781, 0.828753, -0.102244, 0.329788, 0.279352, 0.456696, 0.121948, -0.775762, 0.45879, -0.851344, 0.467422, -0.0940189, -1.18454, -0.727833, -0.707935, 0.834698, 0.369424, -0.224953, 1.30188, -0.0399811, -1.17372, -0.230597, -0.800886, 0.497392, 0.588182, -0.127733, 0.242047, 0.462843, -0.647729, -0.141151, -0.387356, 0.938052, -0.312397, 0.510401, 0.26784, 1.54582, 0.356399, -0.799778, -0.808808, -0.184811, -0.261819, 0.658614, 0.72117, 0.132513, 0.930781, 0.82367, -0.222354, 0.11064, -0.980152, -0.499338, 0.881094, -0.764569, 0.270065, -0.919792, 0.732823],
          "bias": -0.0548496
        },
        {
          "weights": [-0.0475253, -0.214695, -0.868475, 0.304746, 0.644155, -0.255831, 0.242797, -0.668243, -0.356127, -0.678928, -0.701289, -1.30592, -0.389969, -0.510096, -0.184539, 0.259475, 0.958953, -0.652934, -1.10377, 0.788906, -0.740526, -0.326121, -0.189192, -0.809415, 0.480732, -0.308098, -0.179057, 0.145724, -0.139153, -1.14735, 0.609045, 0.724584, -0.0558551, 0.740569, 0.02933, -0.322963, -0.426524, -0.727873, -0.0799433, 0.128612, -0.406801, 0.218768, -0.177306, 0.20323, 1.1036, 0.944345, -0.626032, 0.667624, -0.708588, -0.423609, 0.45653, -0.449114, 0.645198, -0.732662, -0.347267, 0.0371928, -0.129497, 0.0787494, 0.78799, 0.642613, 0.237589, 0.397035, 0.367198, -0.818266],
          "bias": 0.306756
        },
        {
          "weights": [-0.603472, -0.229967, 0.622343, -0.331345, 0.69009, -0.249046, 0.261854, -0.0911418, 0.879838, -0.623654, -0.38247, 0.961858, -0.560429, -0.714846, -0.884404, 0.326706, 0.652947, -0.422256, 0.020841, 0.520805, -0.0802662, 1.05803, -0.297948, -0.690773, 0.70835, -0.655335, 0.0983983, -0.343033, 0.401119, 0.866224, -0.757011, -0.89161, -0.501417, 0.865331, -0.222955, -1.12207, -0.694458, -0.961102, 0.0975316, -0.503876, -0.584755, 0.715061, -0.542019, -0.145184, -1.4482, -0.564097, -0.507735, 0.653162, 0.013647, 0.375432, 0.173967, -1.06662, -0.0149515, -1.12398, -0.446649, 0.00414181, -0.468572, -0.899833, -0.890474, -0.75671, 0.828717, -0.647485, -0.64832, -0.6727],
          "bias": -0.986222
        },
        {
          "weights": [0.128725, -0.484027, -0.165869, 0.167623, 0.613505, 0.330255, 0.582868, 0.328566, 0.650562, -0.251573, 0.328782, -1.16672, 0.561886, -0.0180561, 0.100112, -0.383875, -0.533345, 0.344236, 0.65873, -0.0253884, 1.21878, -0.337128, 0.184845, 0.997754, 0.0255846, 0.428135, 1.40085, 0.95248, 1.10101, -1.09942, 0.595945, -0.0914606, -0.330257, -0.569923, -0.923838, -0.395558, 1.08153, 0.65903, 0.611814, 0.410894, -0.592543, -0.0594042, 0.244172, 0.969343, 1.49692, -0.402529, -0.735726, -0.610805, 0.941707, -0.82381, 0.363806, 1.16049, 0.413443, -0.451349, 0.837048, -0.882167, 0.655592, 0.663519, 0.495932, 0.435407, 0.817289, 0.0918778, -0.656054, -0.512967],
          "bias": 0.85789
        },
        {
          "weights": [-0.579892, -0.229719, 0.282286, -0.920862, -0.617905, -0.30682, -0.513405, 0.322691, -0.809461, -0.865256, 0.245231, -0.251186, -0.728511, 0.634425, -0.270283, -0.424792, -0.322963, -0.430989, 0.628261, -0.223035, -0.72147, 0.746094, -0.439914, -0.930422, 0.281222, 0.995493, 0.798534, -0.715234, -0.78809, -0.665295, 0.895054, -0.240453, 0.144181, 0.17734, -0.161315, 0.398747, 0.742991, 0.325281, -0.151033, -0.938941, 0.460025, -0.905803, -0.190127, 0.731513, 0.640289, 0.578786, -0.56575, -0.59434, -0.852203, -0.898293, 0.182625, -0.573673, 0.759467, 0.742711, -0.376565, 0.168218, 0.865733, -0.489697, 0.541317, -0.794829, -0.115797, 0.436371, -0.0352814, -0.971616],
          "bias": -0.303458
        },
        {
          "weights": [0.803404, 0.554659, -0.515768, 0.128685, -0.596374, -0.45471, -0.411291, -0.502176, 0.394359, -0.552248, -0.773554, -0.0789985, 0.0397056, -0.367894, 0.120942, -0.0162909, 0.94226, 0.674798, -0.181438, 0.970203, -0.544063, -1.01322, 0.678232, -0.191464, 0.58024, 0.883404, 0.902585, 0.226458, 0.00582571, 0.668979, 0.630322, -0.348473, 0.275782, -0.885446, 0.780211, 0.837111, -0.182452, -0.631079, -0.822768, -0.945796, -0.183327, -0.596322, -0.0247949, 0.856378, 0.245631, -0.85171, -0.317616, -0.0219558, 0.823088, 0.553089, -0.0517526, -0.720975, 0.749715, -0.37352, -0.0701423, 0.172252, -0.64782, -0.377404, -0.811137, 0.200303, -0.656281, 0.819185, 0.851829, 0.6195],
          "bias": 1.45868
        },
        {
          "weights": [0.632041, 0.298908, -0.406417, -0.999039, 0.47614, -0.352213, -0.182366, 0.879818, 0.675135, -0.483691, -0.0843975, 0.704631, 0.29273, 0.893647, 0.646514, -0.248218, -0.315809, 0.767835, -0.775001, 0.247005, -0.20827, 0.397251, 0.505148, 0.32029, 0.704908, -0.294549, 0.87684, 0.736925, -0.348683, 0.164714, 0.457832, -0.810679, -0.417583, -0.948584, -0.809718, -0.847405, -0.20676, 0.00791626, 0.938376, -0.625662, 0.524225, -0.146022, -0.921031, -0.183045, -0.0395431, 0.844277, 0.4747, 0.431816, 0.612112, 0.818494, -0.321179, -0.596157, 0.428577, -0.816031, 0.630095, 0.0394477, -0.204618, 0.294103, -0.436459, 0.352662, -0.422388, -0.978627, 0.541983, 0.160029],
          "bias": -0.546286
        },
        {
          "weights": [0.732266, 0.218587, -0.228009, -0.259818, 0.156962, 0.146329, -0.735593, -0.989059, 0.344093, -0.0126745, -0.241434, 0.362731, -0.565068, -0.809618, -0.199518, -0.71948, -0.224835, 0.110287, 0.789421, -0.161997, -0.286711, -0.171131, 0.660478, -0.965514, 0.218048, 0.0131409, -0.589357, 0.0379664, -0.471969, 0.946488, 0.31221, -0.71261, -0.00928663, -0.915799, 0.0275722, -0.879418, 0.203437, 0.291979, -0.841384, -0.425377, -0.720695, -0.0828181, 0.937354, -0.285763, -0.0938916, -0.436525, 0.0218509, 0.882728, 0.673762, -0.363089, -0.279269, -0.612949, 0.264325, -0.618791, -0.55137, -0.490533, 0.421444, 0.0607275, 0.748888, 0.976568, -0.167146, 0.0610981, -0.736042, 0.823568],
          "bias": 0.714875
        },
        {
          "weights": [0.29153, 0.971243, -0.62417, -0.41649, -0.87014, -0.0495464, -0.137185, 0.0470416, -0.286554, 0.604146, -0.845395, 0.238528, -0.506728, -0.962667, -0.0493169, 0.262907, -0.214842, 0.364827, -0.484068, 0.0607363, 0.680733, 0.0253984, -0.385095, -0.125815, -0.18732, -0.408527, 0.612708, 0.779447, -0.277293, 0.492214, 0.0190774, -0.853039, 0.50185, 0.394908, -0.269529, 0.498985, -0.787363, 0.593286, -0.321249, 0.0588076, 0.197431, -0.166644, -0.702665, 0.690703, -0.223641, 0.286412, 0.086335, 0.655848, -0.348761, 0.64066, -0.283416, -0.668028, -0.428272, 0.331489, 0.338882, 0.517132, -0.944314, 0.0459207, 0.39091, -0.0888833, -0.423472, -0.590013, 0.0580781, -0.921622],
          "bias": 0.703175
        },
        {
          "weights": [0.788549, 0.710088, -0.849744, 0.381835, -0.611161, 0.209064, -0.420733, 0.222196, 0.544792, -0.597305, -0.907114, -0.113728, 0.41945, 0.748733, 0.482443, 0.12969, -0.401958, 0.94714, 0.88921, -1.00732, 0.216442, 0.406342, -0.88206, -0.668058, -0.257817, 0.029057, -0.216178, 0.0275222, -0.982444, 0.041916, -0.0429353, 0.875685, -0.303065, 0.107321, 0.25752, 0.0161952, -0.753195, 0.836787, -0.69203, 0.861176, -0.760519, -0.599144, -0.252551, 0.658932, -0.975059, -0.825177, -0.141799, -0.252369, -0.878037, -0.307657, -0.259694, 0.338405, -1.02596, -0.141754, 0.739926, -0.2142, 0.956882, -0.351604, 0.93797, -0.955983, 0.635244, -0.104966, 0.919702, -0.667821],
          "bias": -0.876189
        },
        {
          "weights": [0.177222, 0.417954, -0.681261, 0.0140085, 0.725924, -0.820084, 0.25349, -0.87322, -0.127704, -0.017999, -0.723631, -0.0749496, 0.825965, 0.0239996, 0.169083, -0.467455, 0.833885, -0.422933, -0.545908, -0.252527, -0.697244, 0.239892, -0.281408, -0.0346103, 0.299931, -0.23739, -0.291535, -0.697203, -0.331926, -0.189257, -0.802679, 0.859534, -0.649234, -0.48394, -0.126458, -0.937547, -0.318262, -0.872968, -0.79653, 0.568271, 0.109033, -0.520161, -0.506678, -0.0650022, 0.61167, 0.784474, 0.48178, 0.337723, -0.638459, -0.942058, -0.914804, -0.335703, 0.405665, -0.196212, 0.643924, -0.280166, 0.580635, -0.755443, -0.0852009, -0.737053, 0.17737, 0.11212, -0.877519, 0.528136],
          "bias": 1.05452
        },
        {
          "weights": [-0.00397738, 0.604826, -0.675845, 0.123055, 0.808295, 0.892426, -0.767912, -0.711866, -0.492183, 0.181323, 0.791973, -0.708591, -0.461949, 0.129696, -0.346168, -0.278956, 0.229129, 0.332366, -0.859934, -1.0779, -0.148762, -0.140101, 0.627789, 0.220847, 0.77558, 0.890736, -0.725953, -0.236471, -1.11184, 0.925471, -0.484121, 0.00923953, 0.531178, -0.159966, -0.867706, 0.214421, -0.392592, -0.635618, 0.627608, 0.240278, 0.545705, 0.419581, 0.531687, -0.916245, -0.574894, -0.8136, -0.0701483, 0.778406, 0.518766, 0.0707988, 0.700508, -0.629996, 0.806528, 0.328297, 0.715904, 0.70716, 0.344086, -0.885879, -0.405141, 0.357303, -0.959526, 0.110738, -0.633458, 0.571652],
          "bias": 1.15513
        },
        {
          "weights": [-0.501164, -0.0888748, -0.316767, -0.136782, -0.461267, 0.923511, -0.591077, 0.958314, 0.456079, -0.38227, -0.49241, 0.282597, 0.451313, -0.714004, 0.161246, -0.381619, -0.888444, 0.656303, -0.809922, 0.468637, 0.275938, -1.10276, -0.0910089, 0.486328, -0.148021, -0.733706, 0.790415, 1.22633, -0.463432, -0.261429, 0.913489, 0.131673, -0.990422, -0.403278, 0.994891, -0.547957, -0.576036, -0.596186, -0.493375, 0.976312, 0.0215436, 0.0142151, 0.258909, -0.527143, 0.563825, -0.219962, 0.187506, 0.411767, -0.563659, 0.737466, -0.119596, 0.712279, 0.898317, 0.789395, 0.294875, -0.153436, -0.848043, -0.178323, -0.190719, -0.215207, 0.92013, -0.27723, 0.916466, 0.929708],
          "bias": 0.385142
        },
        {
          "weights": [0.911356, -0.521981, 0.839725, -0.68483, -0.0153561, 0.816037, 0.336713, 0.998859, 0.434828, 0.905839, 0.29907, -1.03669, -0.0942342, -0.289163, -0.348793, -0.169189, 0.687509, -0.540246, -0.426157, 0.385593, 0.567051, 0.420407, 0.725129, -0.423694, -0.518758, -0.490078, -0.43959, 0.267987, -0.761191, -0.825409, -0.476495, -0.662256, -0.0958371, -0.636771, -0.347086, 0.701228, -1.00831, 0.989628, 0.887666, 0.614094, 0.895466, 0.186736, 0.577407, -0.198768, 0.961547, -0.519833, 0.819621, 0.585081, -0.0600789, -0.354982, -0.0293255, -0.493028, -0.870601, -0.304196, 0.270857, -0.20178, 0.393304, 0.767293, -0.997768, 0.819692, -0.806563, -0.474263, -0.842564, 0.0975999],
          "bias": 0.0809216
        },
        {
          "weights": [-0.18965, -0.0135933, 0.0682322, -0.200022, -0.125927, -0.317674, -0.304556, -0.939192, -0.488714, 0.684255, 0.958381, -0.207154, 0.453492, 0.543462, 0.931374, -0.851106, -0.298285, -0.374075, -0.732735, 0.534713, 0.846397, 0.0654845, -0.0215977, 0.664075, 0.266324, -0.201905, 1.00573, 0.940284, -0.094854, -0.243496, -0.318973, 0.765881, 0.941519, 0.74926, -0.434141, -0.234794, -0.618799, 0.261304, -0.123601, -0.0571277, -0.054441, -0.16522, 0.735718, -0.600949, -0.473535, 0.8657, -0.40167, 0.0799578, -0.508375, 0.064202, -0.385329, -0.661978, -0.722091, 0.593073, -0.947518, 0.594618, -0.558448, 0.909993, 0.38668, 0.397083, -0.134895, -0.932293, 0.162965, -0.193376],
          "bias": 1.1866
        },
        {
          "weights": [0.728824, 0.622215, -0.751447, -0.00987198, -0.501385, 0.191425, 0.935687, 0.333395, 0.125751, -0.614877, 0.711637, 0.153548, -0.0722929, -0.208405, 0.483075, -0.952345, 0.456651, 0.871481, -0.461954, 0.0443633, 0.868217, 1.13266, 0.541661, 0.833956, 0.357247, -0.0612555, -0.518781, 0.207111, -0.954036, 0.667783, 0.241921, 0.830534, 0.127901, 0.490473, -0.179338, 0.57077, -0.373847, -0.243651, -0.0400897, 0.807649, 0.141471, -0.328452, -0.0388032, -0.930822, 0.2453, -0.717826, -0.827422, -0.0802067, -0.846345, -0.451473, -1.03584, -0.978127, -0.536651, 0.505818, 0.911574, 0.876341, -0.499692, -0.389364, 0.301294, -0.397983, -0.883678, -0.456785, -0.567449, 0.244223],
          "bias": -0.766711
        },
        {
          "weights": [0.253212, -0.129262, -0.284413, -0.990439, 0.830648, -0.476764, 0.151032, -0.497804, 0.322335, 0.275956, 0.965338, 0.384725, 0.364349, -0.114868, 0.758164, 0.997061, -0.0949662, 0.835782, -0.703628, -0.617588, 0.663171, -0.827288, -0.0330954, -0.642007, 0.69379, 0.568922, -0.390088, -0.627396, -1.08271, 0.498753, -0.729306, 0.254684, -0.410725, -0.0137197, 0.264245, -0.664262, 0.42533, -0.584723, -0.0778807, -0.168149, 0.691233, -0.112542, -0.783424, 0.0555821, 0.908188, -0.805477, 0.136829, -0.322377, -0.969695, 0.652984, 0.060035, 0.693477, -1.03871, -0.97306, -0.864346, 0.73927, 0.680047, -0.390031, 0.976276, 0.681519, -0.671494, -0.75303, -0.0637966, -0.0822194],
          "bias": 0.368771
        },
        {
          "weights": [-0.799551, 0.337704, -0.257234, -0.384274, -0.740177, 0.574616, -0.693041, 0.147281, -0.989024, 0.446727, -0.0801293, -0.841529, -0.524598, 0.597494, -0.764196, -0.763461, -0.258286, -0.986534, -0.765008, -0.255314, -0.959033, -1.02574, -0.467114, -0.240911, 0.997566, -0.785595, 0.026469, -0.81659, 0.0424549, -1.04165, 0.477785, 0.351057, 0.34308, -0.779449, 0.966783, 0.494749, 0.687014, -0.726258, -0.249816, 0.806143, 0.720469, 0.670055, -1.03539, -0.80413, 0.206423, -0.752554, -0.459437, -0.990737, -0.739088, -0.177417, -0.246051, -0.698121, -0.264281, 0.286835, 0.169122, -0.158562, 0.609393, -0.743283, 0.0859737, -0.239998, -0.737908, -0.436241, -0.888942, 0.605172],
          "bias": -0.394054
        },
        {
          "weights": [-0.922159, 0.208075, -0.420523, -0.648417, 0.958258, -0.61438, -0.927948, 0.628313, -0.602738, -0.623925, -0.104138, -0.4762, -0.154961, -0.0948753, -0.0943799, 0.739221, 0.767227, 0.315653, -0.537814, 0.0906158, -0.586825, 0.303624, -0.228391, -0.258509, -0.489494, 0.53161, 0.0528915, 0.123573, 0.571069, -0.512153, 0.858575, 0.72051, 0.816829, -0.561948, -0.927907, 0.703488, -0.247927, -0.855856, 0.403401, 0.220935, -0.47978, -0.700737, 0.744735, 0.365259, 0.253696, -0.228737, 0.17608, -0.0283855, -0.913085, 0.759174, -0.93777, -0.49991, 0.112106, -0.166161, 0.313181, 0.694211, -0.562951, -0.683236, -0.231524, -0.920282, -0.0744808, -0.372949, 0.800228, -0.257651],
          "bias": 0.128733
        },
        {
          "weights": [0.872321, -0.482563, 0.888776, -0.983535, 0.920838, 0.10971, -0.463315, -0.7799, -0.0246472, 0.973544, 0.424488, 0.858837, 0.389286, -0.603898, 0.833531, -0.0912029, -0.470068, -0.594779, -0.795276, 0.675033, 0.958064, 0.898935, 0.87242, -0.964834, -0.444809, 0.952138, 0.0881267, 0.309683, 0.992028, 0.815255, -0.752655, 0.624687, -0.779529, -0.863879, 0.641152, -0.61903, 0.485493, -0.822163, -0.638592, -0.778816, -0.848619, 0.785896, 1.08002, 0.540667, -0.690561, 0.80133, -0.790199, -0.28807, -0.793449, -0.697696, -0.613036, 1.16462, -0.671319, -0.740616, 0.960119, -0.355791, 0.97186, -0.0791953, 0.82645, 0.724226, -0.376161, -0.926205, 0.348912, -0.155691],
          "bias": -0.511611
        },
        {
          "weights": [-0.00993559, -0.0143827, 0.455747, 0.167902, 0.347026, 0.67693, 0.319282, 0.132921, 0.64473, -0.379714, 0.314919, 0.448942, -0.217774, -0.97315, 0.652611, 0.132392, -0.825849, 0.577564, 0.224293, -0.853989, 0.489822, 0.868502, -0.834268, -0.541512, 0.692069, 0.889958, 0.0315826, 0.715121, 0.191009, 0.929519, 0.975781, -0.771066, -0.0877468, 0.431527, 0.396836, -0.788583, 0.0605961, -0.283882, 0.3922, -0.246813, 0.336405, -0.29288, -0.797871, -0.881369, -0.316775, 0.851858, 0.298884, -0.0918801, 0.429422, -0.479706, 0.0541309, -0.0807564, -0.661948, 0.219863, 0.425593, -0.922017, 0.157682, -0.492081, 0.843847, -0.603448, -0.565445, 0.819628, -0.374514, 0.346809],
          "bias": 0.8493
        },
        {
          "weights": [-0.977678, 0.606087, -0.640387, -0.26156, -0.00171267, 0.1128, -0.925156, 0.705407, 0.312046, -0.758663, -0.560624, 0.197511, 0.709328, 0.347496, -0.406675, -0.939485, -0.550512, 0.56043, -0.519964, 0.886319, 0.15513, -0.441981, -0.125106, 0.493943, -0.631741, 0.271445, 1.064, -0.676614, 1.06604, 0.308914, 0.439042, 0.919253, -0.118606, 0.798655, -0.342307, 1.04879, 0.080561, -0.267463, 0.585088, -0.7765, -0.026126, -0.975536, 0.421012, -0.316798, 0.507459, 0.98073, -0.42539, 0.821448, 0.54116, 0.0210392, 0.707767, -0.30371, 0.714557, -0.417339, -0.978874, 0.91371, 0.684999, 0.949624, -0.898403, 0.581931, 0.224931, 0.540639, 0.501184, -0.893675],
          "bias": 0.155388
        },
        {
          "weights": [-0.841124, 0.986006, -0.749252, -0.108586, 0.571094, -0.525752, 0.865288, 0.595558, 0.861653, -0.620617, -0.0324819, 0.701408, 0.0989956, -0.211034, 0.383543, 0.975032, -0.672374, 0.910726, 0.379509, -0.113817, 1.07686, 0.293218, -0.57382, 0.881477, 0.53579, -0.99189, 0.392385, 0.362405, 0.654296, 0.0717589, -0.584278, 0.66817, 0.19874, -0.33353, -0.440416, -0.0851637, 0.285721, -0.575129, -0.634608, 0.00237129, -0.195746, 0.33291, -0.296221, 0.90325, -0.592147, -0.771703, 0.73328, -0.550497, -0.860977, 0.253763, 0.335685, -0.784122, -0.167042, 0.761865, 0.952353, -0.776255, 0.624972, 0.0587615, 0.300174, 0.134266, -0.728505, 0.715896, -0.197564, 0.470234],
          "bias": -0.673411
        },
        {
          "weights": [0.36202, -0.759932, 0.523084, 0.786891, -0.39454, -0.474544, -0.408855, 0.938371, 0.37021, -0.650608, -0.939753, 0.743265, -0.747375, -0.49025, 0.73753, 0.336434, 0.700432, 0.808405, -0.830852, 0.487248, 0.930712, -0.607107, -0.0577332, -0.18048, 0.548309, -0.923467, 0.11621, 0.2894, 0.0489222, -0.293992, 0.64657, -0.759012, -0.198682, 0.169655, -0.972121, 0.576732, 0.865064, -0.380976, 0.345149, 0.0653202, -0.0315836, 0.405396, -0.191415, 0.221042, 0.940341, -0.598644, -0.612477, 0.615578, -0.790238, -0.588088, 0.102826, 1.14047, -0.169999, 1.04509, -0.20996, -0.791644, 0.951672, 0.881055, 0.472561, -0.169359, -0.557695, 0.119131, 0.0716291, 0.243623],
          "bias": -0.668653
        },
        {
          "weights": [0.0995085, -0.349599, 0.983897, 0.718533, 0.99555, 0.049217, -0.313051, 0.400946, 0.713044, 0.738037, 0.316092, -1.42357, -0.808278, -0.0683303, -0.675839, -0.462528, 0.864542, -0.705318, -0.340446, 0.805844, 0.150885, -0.13209, 0.691353, -0.0342226, -0.121563, -0.478006, 1.01221, 1.6017, 0.659786, -0.886262, -0.713645, -0.306868, 0.302106, -0.729749, -0.588336, 0.363818, 0.385631, 0.0986137, -0.301398, 0.0325119, -0.163349, -0.985306, -0.391055, 0.0283736, 0.550492, 0.471073, 0.499683, -0.189094, 0.765755, -0.302797, -0.38325, -0.0833609, -0.830758, -0.691897, 0.816254, -0.0184832, -0.236066, 0.224336, -0.0209148, -0.642442, 0.876041, 0.26544, 0.0506893, 0.178147],
          "bias": 0.721947
        },
        {
          "weights": [0.462354, -0.524197, -0.144841, -0.439032, 0.174405, 0.887671, 0.397619, 0.189098, 0.0345829, -0.64017, -0.864538, -0.466495, 0.903438, -0.0536326, -0.72859, -0.443284, 0.496954, 0.121887, -0.312355, 0.782819, -0.0179342, 0.669162, -0.497171, -0.837523, -0.379602, -0.139613, -0.945406, 0.901913, 0.955001, 0.244515, 0.421529, 0.37343, 0.692469, -0.723312, 0.934397, -0.0892017, -0.791716, 0.332016, -0.944028, 0.198943, 0.691846, -0.808566, 0.732448, 0.595283, 0.153877, 0.976009, -0.891925, -0.365244, 0.0978957, -0.232129, -0.582425, -0.920039, -0.546891, -0.0795957, -0.801486, 0.0295819, 0.736866, -0.762967, -0.0845803, 0.647942, 0.453699, -0.663051, 0.0213721, 0.146167],
          "bias": -0.554862
        },
        {
          "weights": [-0.0442305, -0.986959, -0.222004, -0.712215, -0.930987, 0.976939, 0.979631, -0.739553, 0.681537, 0.53099, 0.398248, 0.740651, 0.549657, -0.966996, -0.244558, -0.593064, -0.593346, -0.208522, -0.100775, 0.193726, -0.0994156, 0.928807, 0.0199999, 0.227025, -0.238879, -0.332058, -0.491789, -0.0744431, 0.599906, 0.909996, 0.711707, -0.354916, 0.839932, -0.510297, -0.0671308, 0.819537, -0.622766, -0.0874998, -0.830608, -0.85182, -0.55651, 0.56764, 0.88883, -1.00685, 0.428131, -0.438833, -0.51051, -0.992702, 0.352646, 0.30561, 0.201023, -0.74677, 0.0619036, -0.778977, 0.569663, 0.912433, -0.0216265, -0.749613, 0.0105031, -0.332312, -0.922722, -0.27779, 0.312772, 0.91721],
          "bias": -0.140638
        },
        {
          "weights": [-0.754359, 0.826155, 0.678555, 0.158141, 0.995547, 0.826735, 0.601631, 0.563186, 0.63246, 0.684185, 0.16383, -1.18367, -0.755621, 0.171128, 0.546273, 0.479286, -0.538441, 0.888911, -0.746704, -0.157306, 0.529278, -0.834271, 0.750364, 0.708962, 0.553534, -0.581948, 1.23424, -0.276252, 0.801526, 0.326148, 0.487656, 0.976464, 0.529605, 0.166212, 0.134605, 0.595855, 0.06365, -0.263764, 0.0883376, -0.374593, -0.579579, -0.747832, -0.558267, -0.3352, 0.8713, -0.634692, -0.926618, 0.884854, -0.745781, -0.296021, -0.272452, 0.783497, 0.317713, -0.522088, 0.421755, -0.199457, -0.17474, 0.207994, 0.0762866, -0.443917, -0.0885558, -0.436057, -0.467453, -0.558951],
          "bias": 1.11516
        },
        {
          "weights": [0.667152, 0.9662, -0.276898, -0.596613, 0.0545377, 0.348509, -0.176192, 0.306705, -0.832457, 0.417904, -0.27, -0.554062, 0.525227, -0.385145, -0.21293, -0.804735, 0.271699, -0.500137, 0.355362, 0.712848, 0.955558, -0.844095, -0.495833, 0.129612, 0.319105, 0.0602498, -0.83809, 1.0039, 0.626737, -0.604808, 0.613203, 0.259948, -0.551695, -0.663695, 0.663335, 0.536784, 0.718754, -0.512857, -0.190452, 0.852356, 0.905047, 0.539549, -0.701706, 0.430274, -0.724743, 0.172277, 0.591599, 0.426102, 0.67214, 0.0338742, 0.13895, 0.627698, 0.310633, 0.643117, -0.27663, -0.404202, -0.330574, -0.235574, -0.521154, -0.737777, 0.246532, -0.907951, 0.522171, 0.694837],
          "bias": -0.808272
        },
        {
          "weights": [0.185506, 0.19768, -0.886833, 0.672649, -0.992771, 0.965523, 0.577696, 0.546778, -0.649269, -0.0259702, 0.701181, 0.443047, -0.38747, 0.127283, 0.195147, 0.599503, -0.767707, -0.211095, -0.203765, 0.888371, 0.559176, 0.392033, -0.489104, -0.723299, 0.95084, -0.226881, 0.650095, -0.830249, -0.657809, 0.138109, -0.528757, 0.480795, -0.58425, -0.41559, 0.153444, -0.53012, -0.403165, -0.268859, 0.969756, -0.0993364, 0.705171, 0.670937, -0.65629, -0.682299, -0.0749171, 0.618818, 0.870302, 0.0305133, -0.592277, -0.253502, -0.0811157, 0.966899, -0.734607, 0.42978, -0.803301, -0.830669, -0.844003, 0.719931, -0.78778, -0.548714, -0.061999, -0.316537, 0.932082, 0.353751],
          "bias": 0.695055
        },
        {
          "weights": [0.0855263, 0.776729, 0.817805, 0.816667, 0.746485, -0.281531, 0.521838, 0.417422, 0.14214, 0.792637, -0.784357, -0.525674, 0.751405, 0.246156, 0.168681, -0.590562, -0.881861, 0.0886793, -0.658702, 0.589483, 0.373844, -0.489371, 0.657014, 0.00530947, 0.00948097, -0.891699, 1.31841, 1.06804, -0.871152, 0.0104294, -0.0391843, 0.125909, 0.0737906, -0.221379, -0.0574239, -0.0912584, 0.585555, -0.535586, -0.762302, -0.36077, -0.742949, -0.546659, 0.113556, 1.00846, 1.07459, -0.431131, -0.670571, 0.817636, 0.657549, -0.0426414, 0.407119, 0.0313925, 0.843085, 0.0641338, 0.948236, -0.2359, 0.083969, 0.891547, -0.542956, 0.124352, 0.188608, 0.41786, -0.749739, -0.737601],
          "bias": -0.891515
        },
        {
          "weights": [0.192837, 0.0826745, 0.69357, 0.657251, 0.320373, -0.6672, 0.914302, 0.773714, 0.732988, 0.834293, 0.473212, -0.757668, -1.08384, 0.290848, 0.959406, 0.12108, -0.390498, -0.0976669, -0.183825, 0.337612, -0.396989, 0.580275, -0.330861, -0.257884, -0.903156, 0.793491, 0.742691, 0.326671, -1.20381, -0.866403, 0.711185, 0.236588, 0.275797, 0.404755, -0.106161, -0.651388, 0.489997, -0.191859, -0.630115, 0.470543, -0.357566, 0.843096, 0.712875, -0.441403, -0.0540886, 0.731807, 0.927236, 0.743446, -0.36586, -0.197064, 0.081058, 0.237151, -0.804822, 0.750197, -0.773175, -0.460419, 0.791246, -0.842451, -0.945715, 0.834998, -0.649328, 0.76547, 0.0715861, 0.626469],
          "bias": 0.103774
        },
        {
          "weights": [0.965425, -0.77736, -0.0922205, -0.226434, -0.407476, -0.621678, 0.416, -0.564379, -0.849277, -0.777844, 0.569565, 0.867569, -1.00184, 0.313011, -0.483331, -0.0476717, -0.358372, -0.998622, 0.380105, -0.511845, -0.923025, 0.919686, -0.569371, -0.614247, 0.988931, -0.734373, -0.399843, 0.618132, 0.185985, -0.652066, -0.0753753, 0.302638, -0.414466, 0.832404, -0.923796, 0.0268306, -0.940501, 0.492205, 0.613679, -0.63855, 0.714361, 0.183244, -0.770981, 0.712525, -0.640013, -0.239352, -0.183918, 0.137883, -0.237974, -0.788854, 0.626038, -0.160999, -1.00544, -0.943333, 0.375982, -0.865278, -0.526478, -0.887593, 0.889122, 0.810735, -0.524699, -0.186253, 0.113373, 0.0608349],
          "bias": -0.50689
        },
        {
          "weights": [0.189577, -0.761107, -0.143122, -0.318218, 0.852572, 0.218328, -0.603858, 0.0358165, 0.462306, -0.740104, 0.532072, -0.499022, 0.0422237, -0.330045, -0.0150198, 0.287123, -0.552779, 0.975209, 0.710939, -0.378638, 0.317437, 0.845661, 0.128637, 0.463597, 0.45676, -0.0606281, 0.627121, -1.04127, -0.981009, 0.277756, -0.0833413, 0.242321, 0.238626, 0.773537, 0.924103, 0.0574453, -0.0418892, -0.679755, -0.872985, -0.545829, -0.419859, 0.659087, -0.0448517, 0.622365, -0.982735, 0.662105, -0.0567584, -0.223737, 0.637314, -0.623843, 0.397625, -0.0452481, 0.910041, -0.473738, -0.547897, 0.400555, 0.499388, -0.608999, 0.671062, 0.552132, 0.390734, -0.412279, -0.205547, -0.370639],
          "bias": -1.03929
        },
        {
          "weights": [-0.281444, 0.72056, 0.353122, 0.0388017, 0.847575, 0.807293, 0.618943, 0.506662, -0.515582, 0.275061, 0.835704, -0.900985, -0.926761, -0.388033, 0.783837, -0.40554, -0.956655, -0.227658, -0.509253, -0.541703, 0.0793818, 0.891302, -0.897252, 0.615446, 0.609871, 0.65488, -0.0913752, -0.899964, -0.69573, 0.588034, -0.44115, 0.16789, 0.356101, 0.911972, -0.793309, 0.0586124, 0.574201, 0.825634, -0.289662, -0.796318, 0.100695, -0.453958, -0.697302, 0.173934, 0.0604525, -0.865958, 0.913457, 0.201353, -0.0936153, -0.548288, 0.65965, -1.01423, -0.754543, 0.762398, 0.746276, -0.999608, 0.562342, -0.247543, -0.802015, -0.988325, -0.612001, -0.243165, 0.179564, 0.7441],
          "bias": 0.114758
        },
        {
          "weights": [0.386256, -0.0522246, -0.611928, 0.21189, 0.658113, -0.408246, -0.687415, -0.795845, -0.058041, 0.631582, 0.362164, -0.0713346, 0.611506, -0.436483, 0.982386, 0.996751, -0.63177, -0.886784, -0.760064, -0.657841, 0.925959, -0.759672, 0.838034, -0.38805, -0.414351, 0.849709, 0.213751, 0.556286, 0.0957399, -0.403288, -0.98871, -0.584471, 0.691823, -0.600638, 0.627419, 0.416403, 0.0575825, 0.940003, 0.554091, 0.933075, 0.571586, -0.0837451, -0.13826, 0.183092, 0.693574, -0.00853797, 0.113377, 0.848002, 0.104678, 0.500649, -0.809839, 0.0306371, 0.95478, 1.02819, 0.57612, -0.526038, 0.811437, -0.423932, 0.816445, -0.15929, 0.320116, 0.827736, 0.256239, 0.0119387],
          "bias": -0.776065
        },
        {
          "weights": [-0.116342, -0.638125, 0.218213, -0.176339, 0.915966, 0.151288, -0.604753, -0.167779, -0.839636, 0.511872, -0.688007, 0.21262, -0.154216, -0.840005, -0.743496, -0.874102, -0.71631, 0.220675, -0.924995, -0.534047, 0.0173296, -0.451034, -0.943145, 0.372862, -0.695383, -0.102435, -0.147281, -0.707906, -0.62566, 0.765711, -0.64055, 0.0374624, -0.933208, 0.577664, 0.861123, 1.20329, -0.050513, -0.74363, -0.185021, -0.110684, 0.768242, 0.126973, -0.898064, -0.385974, 0.446709, -0.702354, -0.480611, 0.570658, 0.518321, -0.466401, 1.03661, -0.46435, 0.242307, 1.09347, 0.687977, 0.326389, -0.229504, -0.619045, 0.458742, -0.0756994, -0.914128, 0.818192, 0.961763, -0.847336],
          "bias": 1.04732
        },
        {
          "weights": [0.822886, -0.864578, -0.875192, -0.920743, -0.0495987, 0.0141235, 0.847499, -0.922626, 0.0552656, -0.75901, 0.364342, 0.696062, -0.203594, -0.0650008, -0.128767, 0.293978, -0.248925, 0.186348, -0.3411, -0.339968, -0.0896479, 0.985289, 0.394501, 0.255281, 0.10088, -0.681198, 0.0340292, -0.388051, -0.683408, 0.836967, -0.685072, -0.896549, 0.629238, -0.560264, -0.817292, -0.384334, 0.489886, -0.969793, -0.342987, -0.490875, -0.728803, -0.978645, 1.20519, 0.067603, -0.350769, -0.266731, -0.674446, 0.707429, 0.919617, -0.358696, -0.632539, -0.170031, -0.680531, 0.761963, -0.950777, 0.384323, -0.955262, 0.390376, -0.696605, -0.674698, -0.115808, -0.381677, -0.571246, -0.48657],
          "bias": -0.296663
        },
        {
          "weights": [-0.388539, 0.0930699, -0.488082, -0.358332, 0.750083, 0.0210424, -0.0871348, 0.771438, -0.116921, 0.944441, -0.272207, 0.616721, -0.605141, -0.564778, 0.535965, -0.0887002, -0.233344, -0.670093, 0.195115, -0.382545, -0.496007, -0.420562, -0.46267, 0.769506, -0.11754, -0.137368, -0.221812, 0.625273, 0.416249, 0.167501, -0.441159, 0.902847, -0.739802, 0.0707586, -0.455485, -0.864856, -0.783336, 0.45738, 0.781719, -0.02512, 0.401822, -0.490488, -0.408399, 0.79668, 0.0692241, -0.872807, -0.416883, 0.71139, -0.5429, 0.777859, -0.671155, -0.0389066, -0.518213, -0.133825, -0.394264, 0.239384, 0.603943, 0.259433, -0.259834, -0.104671, -0.573439, 0.299007, -0.201824, -0.313241],
          "bias": 0.366257
        },
        {
          "weights": [0.342691, -0.30296, -0.538433, -0.199929, -0.52124, 0.436447, -0.798108, -0.0117284, -0.972325, 0.87371, 0.933005, -1.01397, -0.70621, 0.644396, -0.388032, -0.765314, 0.848378, 0.448199, -0.577226, -0.573348, -1.1091, 0.662158, -0.806368, 0.313368, -0.428839, 0.0889612, 0.74573, 0.875968, 0.7241, -0.742148, -0.760067, 0.229827, 0.123729, -0.2985, -0.970102, 0.439452, -1.02509, -0.768209, -0.40924, -0.834378, -0.8945, -0.476234, -0.848347, -0.600709, -0.826039, -0.0675418, -0.202986, -0.983461, -0.619343, 0.388624, -0.556809, -0.728445, 0.0565824, -0.363177, 0.74796, 0.79078, 0.888821, 0.48789, 0.660947, 0.775958, 0.914578, 0.900881, 0.00578548, 0.0383073],
          "bias": -0.189114
        },
        {
          "weights": [0.0356837, -0.359204, -0.259673, 0.267474, 0.231556, -0.0940511, 0.372975, 0.755321, 0.226439, 0.935302, 0.923482, -0.8403, -0.196229, 0.940021, -0.460446, -0.87906, -0.453752, -0.0258542, 0.341363, 0.417564, -0.206439, 0.132142, 0.23493, -0.790004, -0.207714, 0.0108876, -0.804774, -0.236182, -0.911872, 0.163685, 0.295547, 0.0523568, 0.803677, -0.964126, -0.680169, 0.106688, 0.0132785, 0.692806, -0.209446, -0.831738, 0.628108, -0.285964, -0.672038, -0.568121, -0.275291, -0.133287, -0.518636, 0.200306, 0.840859, 0.821923, -0.382131, -0.36558, 0.0247174, 0.852799, -0.22704, 0.745548, -0.207769, -0.102466, -0.561285, -0.191096, -0.939584, 0.734262, 0.861261, 0.864093],
          "bias": 1.15584
        },
        {
          "weights": [-0.818908, -0.100675, -0.28804, 0.873898, 0.68988, -0.119778, 0.502006, -0.596084, 0.207381, 0.862429, 0.057973, -0.937758, -0.485848, -0.741721, 0.914953, -0.834283, -0.195307, -0.522083, 0.107127, -0.243606, 0.421236, -0.147325, 0.378267, -0.851588, 0.303243, -0.812829, -0.608962, 0.219716, -0.781209, -0.938932, -0.192359, -0.770476, -0.0277541, 0.519601, -0.896578, -0.167516, -0.429818, 0.605428, 0.0660412, 0.607204, 0.467857, -0.875986, 0.669446, 0.982009, -0.435497, 0.596251, 0.977368, 0.186985, -0.925832, 0.0963469, 0.94338, 0.495405, 1.13123, 0.321647, 0.473458, 0.264117, 0.33846, 0.682286, -0.698378, 0.386892, 0.755206, 0.109264, 0.616416, -0.272548],
          "bias": -0.366687
        },
        {
          "weights": [0.719838, 0.389578, 0.0286882, 0.325265, -0.544381, -0.364108, -0.206878, -0.420367, -0.682809, -0.395227, -0.0380742, 0.828436, -0.634233, -0.851089, 0.98761, 0.678487, 0.921932, 0.312656, 0.554356, -0.143153, -0.430259, -0.181526, -0.58832, -0.531599, 0.205101, 0.798572, -0.907761, -0.817004, 0.198615, -0.133946, -0.0567705, 0.134826, -0.659363, 0.971918, -0.539909, -0.420118, -0.608563, 0.253213, 0.375889, -0.0749991, 0.857986, -0.662185, -0.246563, -0.776247, -0.644643, -0.173947, -0.881387, -0.591342, -0.861291, 0.757975, 0.265505, -0.291549, -0.554919, 0.677186, 0.393225, 0.866555, 0.692131, 0.616832, -0.81908, 0.10712, -0.432109, 0.124149, -0.758055, -0.0914718],
          "bias": 0.205748
        },
        {
          "weights": [-0.297963, 0.704784, 0.703877, 0.95525, 0.0806729, -0.371122, 0.813236, 0.418488, 0.467321, -0.746638, 0.905213, -0.775303, -0.463642, -0.686129, -0.567917, -0.870049, 0.79575, 0.356907, -0.277271, 0.853691, -0.0854858, -0.410716, 0.38144, -0.633036, -0.16112, -0.51144, 0.167914, 1.19609, -0.105113, 0.774707, 0.0590963, 0.432542, 0.548168, -0.237027, 0.387792, -0.206778, 0.556233, 0.201028, -0.952672, -0.140828, 0.45439, 0.952541, 0.0838696, 0.990748, -0.50053, 0.584629, 0.956317, -0.937838, -0.0584635, -0.252278, 0.915853, 0.856051, 0.570064, 0.297293, -0.941367, -0.755438, 0.621471, -0.00651138, -0.792408, -0.648024, -0.163128, 0.266688, 0.784518, -0.61496],
          "bias": -0.973484
        },
        {
          "weights": [0.17231, 0.0138808, 0.421513, -0.626662, 0.0612089, -0.719315, 0.827728, 0.0137502, 0.433231, 0.654095, 0.280163, 0.131114, 0.658139, 0.342325, 0.959396, -0.641866, 0.0937958, 0.651065, 0.87707, -0.725566, 0.757425, -0.878368, 0.848178, -0.296813, -0.784031, -0.799845, 0.474532, 0.41713, 1.0324, 1.03835, 0.512318, 0.156983, -0.0610201, -0.0661688, 0.530321, -0.952084, 0.262243, 0.35805, 0.013939, -0.352253, 0.0121445, -0.705898, 0.778861, -0.329717, 0.5709, 0.625003, -0.0193103, -0.269778, 0.276068, -0.255495, 0.00465669, 0.033493, -0.19939, -0.147165, 0.688952, -0.0311476, 0.00526253, 0.229011, -0.54849, -0.0100643, 0.154111, 0.963828, -0.853081, -0.90691],
          "bias": 0.33852
        },
        {
          "weights": [0.67724, -0.906721, -0.887825, 0.0352903, 0.107218, -0.240078, -0.952565, 0.40132, -0.574472, -0.330009, 0.0377463, -1.29525, 0.739119, 0.767969, 0.326598, -0.604814, -0.275102, -0.687636, -0.19771, 0.618444, -0.910245, -1.22886, -0.464732, 0.230328, -0.431569, 0.525204, -0.181345, -0.0335238, 0.760561, -0.86825, 0.429918, 0.349363, -0.429192, 0.542093, -0.615347, 0.766465, -0.609546, -0.567912, 0.0793463, -0.272457, 0.102079, -0.882907, -0.567704, -0.158802, 1.31928, -0.895327, 0.147946, -0.390041, -0.582963, -0.703985, -0.771597, -0.493208, -0.498625, -0.236329, 0.648681, -0.0186326, -0.799563, -0.966881, 0.513626, 0.872559, -0.489352, -0.0564554, 0.221923, 0.0814559],
          "bias": -0.740752
        },
        {
          "weights": [0.606576, -0.240518, -0.212347, -0.961336, 0.838829, 0.515197, 0.140744, 0.955921, -0.706729, 0.893503, 0.840982, -0.691917, 0.117025, -0.549059, -0.18502, 0.337464, -0.409094, 0.233334, 0.66054, 0.341714, -0.0424099, -0.358093, 0.466575, -0.0848661, -0.754606, 0.339135, 0.591218, 0.354375, -0.363367, -0.582623, 0.674577, -0.832367, 0.26672, -0.53777, -0.793703, 0.181124, 1.053, 0.347041, 0.0614696, -0.729303, 0.240544, -0.0975481, -0.42122, -0.642431, 0.518829, 0.483621, 0.619458, 0.944299, -0.283045, 0.369858, 0.286013, 0.674545, -0.822799, -0.247411, -0.485897, -0.65298, -0.983852, 0.939885, 0.535959, -0.422795, -0.552877, 0.210535, -0.255162, 0.713843],
          "bias": 1.02447
        },
        {
          "weights": [-0.0488642, -0.180609, 0.650191, -0.701823, 0.880861, 0.920888, 0.538721, -0.216687, -0.410471, 0.820715, -0.863294, -1.11391, 0.453452, -0.918995, -0.209896, -0.18997, 0.291443, -0.610927, -0.275408, 0.981736, -0.0835435, 0.0716121, 0.984604, -0.156939, -0.205366, -0.438191, 0.490528, -0.794487, 0.319927, -0.183037, 0.677934, -0.742217, 0.823418, 0.328125, -0.44404, 0.717559, 0.262293, -0.905319, -0.512408, 0.838541, 0.915395, -0.375702, 0.724627, 0.368848, -0.094354, -0.298205, -0.834402, 0.996745, 0.0908683, 0.0772533, 0.978481, 1.00732, -0.650791, 0.963085, -0.162894, 0.130563, -0.488387, -0.87271, 0.135732, 0.81826, 0.131317, -0.186334, -0.923957, -0.0452655],
          "bias": -1.24806
        },
        {
          "weights": [-0.367997, -0.340987, 0.390804, -0.273317, 0.146605, 0.229346, -0.357921, 0.770902, 0.141036, 0.997646, -0.523795, 0.782512, -0.966087, -0.52705, -0.0663003, 0.240497, -0.561849, -0.0722557, 0.516106, -0.741375, 0.63552, -0.353331, -0.100431, 0.89214, 0.842721, -0.28217, -0.0455541, -0.412624, -0.335457, 0.917871, -0.201822, 0.425876, -0.362795, -0.811018, -0.847441, 0.654479, 0.288997, -0.205362, 0.554712, -0.440636, -0.207716, -0.969083, -0.658124, -0.173803, -0.565144, 0.335895, -0.803975, -0.0579816, -0.73636, 0.77245, 0.200644, -1.10084, -0.649891, -0.899787, 0.92063, -0.67784, -0.0526264, -0.0559131, -0.0214528, 0.741247, -0.0777219, 0.776726, 0.167122, 0.559483],
          "bias": 1.2358
        },
        {
          "weights": [0.319682, 0.343292, 0.384036, -0.885681, -0.101996, 0.9434, -0.0933966, -0.0710788, -0.654404, 0.862131, 0.432788, 0.266696, -1.10362, -0.625193, 0.945131, 0.830606, 0.704781, 0.973621, -1.10475, 0.772546, 0.732472, -0.78259, -0.118302, -0.161662, 0.610752, -0.377055, 1.01363, 0.640494, 0.628289, -0.0946965, 0.353186, 0.109749, -0.336609, -0.262778, 0.224069, 0.399616, -0.481157, -0.869328, -0.509683, 0.0262178, 0.992803, 0.923105, -0.707086, -1.11082, -0.449072, -0.34716, 0.881565, -0.997307, -0.373538, -0.80839, 0.775238, -0.641066, -0.337964, -0.343063, 0.359051, -0.565433, 0.441661, 0.119668, 0.822045, 0.231729, -0.560233, 0.175231, -0.658522, 0.103158],
          "bias": 1.02955
        },
        {
          "weights": [0.565546, -0.335447, -0.406926, 0.696219, 0.15487, 0.619292, 0.689022, 0.0779745, -0.672999, 0.73998, 0.375886, -0.0782904, 0.328265, 0.378579, 0.606303, 0.813154, 0.315596, -0.872984, -0.421163, -1.15897, 0.192788, 0.0134043, 0.575973, -0.394265, -0.106419, -0.192299, -0.189647, -1.16634, -0.1441, -0.909472, 0.981263, -0.285274, -0.186787, -0.425663, -0.589056, 0.674803, -1.09965, -0.900034, 0.0460568, -0.47937, 0.839946, -0.578057, 0.442339, 0.168211, 0.565373, 0.106774, 0.274645, 0.116118, 0.23379, 0.911614, -0.04285, -0.573423, -0.31013, -0.466877, 0.325592, 0.87673, 0.634104, -0.628907, 0.945542, -0.216717, -0.480247, 0.926805, 0.498009, 0.332965],
          "bias": -0.491226
        },
        {
          "weights": [0.908953, 0.301047, -0.305229, -0.991081, -0.652896, 0.2154, 0.848865, -0.230953, -0.284129, 0.310356, -0.430431, 0.715038, -0.318423, 0.685686, 0.0564341, -0.503385, -0.0638839, 0.776291, 0.372158, 0.859095, 0.198459, 0.248889, 0.396623, 0.472976, 0.302037, -0.820094, 1.19691, 0.433024, 0.774492, 0.218087, 0.729984, 0.586869, -0.373259, -0.575246, 0.595788, 0.0704214, 0.736731, 0.444653, 0.742892, -0.643974, -0.244991, -0.687539, -0.928936, 0.436586, 1.20233, 0.235104, 0.836625, -0.0657365, 0.0113953, 0.31639, -0.206642, -0.790146, -0.230539, -0.810019, 0.586254, 0.974922, -0.726688, 0.578982, 0.203764, 0.951227, -0.0953245, -0.0662524, 0.538096, 0.531416],
          "bias": 0.915787
        },
        {
          "weights": [0.133884, -0.494738, -0.00134343, -0.421463, -0.751846, 0.354682, 0.333546, -0.439385, 0.533353, -0.326444, -0.441238, 0.00373129, -0.529866, 0.493026, 0.779852, 0.826571, -0.810192, 0.89313, -0.265269, -0.756833, 0.439337, -0.290347, -0.443475, 0.0583656, 0.678143, -0.492248, 0.68772, -0.663431, -0.994199, 0.729732, 0.970392, 0.179732, 0.999719, -0.0309512, 0.758268, -0.792174, -0.716316, 0.0918144, -0.191512, 0.857084, 0.765371, 0.367251, -0.139185, -0.764495, -0.415045, -0.594607, -0.897877, 0.050085, -0.701477, -0.39842, 0.293252, 0.73786, 0.0359115, 0.849777, -0.163728, -0.245899, -0.602424, -0.200687, 0.365991, -0.556576, -0.706229, 0.336384, 0.623155, -0.70651],
          "bias": -0.54766
        }
      ]
    },
    {
      "activation": "sigmoid",
      "nodes": [
        {
          "weights": [0.470774, -0.469198, -0.320342, -0.524896, 0.439231, -0.379762, -0.666092, -0.162776, 0.178367, -0.337428, 0.678073, 0.648237, -0.220132, -0.387401, 0.942173, 0.313207, 1.12005, 0.66549, -0.670727, 1.03004, -0.541585, 0.173434, -0.652906, 0.376472, -0.433505, -0.13083, 0.565489, 0.86911, -0.58751, 0.939162, -1.00114, 0.739918, -0.536983, -0.30631, -0.708467, 0.988155, 0.183858, -0.605091, -0.340375, -0.650548, -0.0215778, -0.897507, 0.978469, 0.596216, -0.392272, 0.681914, -0.0932528, -0.260596, 0.173442, 0.135324, -0.469915, 0.744632, -0.842557, -0.298858, -0.0716784, -0.40098, 0.498973, -0.396907, -0.69122, 0.728554, -0.572433, -0.595063, 0.529732, -0.365946],
          "bias": 0.17915
        },
        {
          "weights": [0.615206, -1.38407, -1.0144, 0.665146, -0.0501349, -0.486613, 0.152779, -0.449621, -1.07679, -0.101793, 0.459879, 1.22433, 0.0582587, 0.618433, 0.243995, -0.495283, -0.579556, -0.460704, -1.22002, 0.191193, 0.349509, -0.648916, -1.13377, 1.23291, 0.0816346, -0.814636, -1.03354, 0.124833, 0.279635, -0.240535, -0.64703, -0.360255, 0.258619, -0.222283, 0.537154, 1.03807, -0.0599133, 0.722224, -0.364501, 0.735571, -0.969565, 1.25733, 0.191097, 0.244739, 0.498528, -1.00207, 1.30395, -1.03182, -0.480551, -1.22647, -0.18984, -0.91715, -0.074166, -0.00364304, -0.0047364, -0.767619, 0.639349, -0.0802184, 0.960402, -0.477538, 0.652564, 0.772415, -0.584525, -0.690786],
          "bias": -0.584901
        },
        {
          "weights": [0.215344, -0.642081, 0.579171, 0.251603, -0.419681, -0.191028, 0.494846, -0.607777, -0.888089, -0.00836867, -0.965521, -0.766276, -0.118381, -0.787804, 0.254435, -0.0415454, 0.137635, 0.948448, -0.899139, -0.35943, -0.456777, -0.867688, -0.549992, 0.140784, 0.548669, 0.466477, -0.20075, 0.546471, 0.816072, 0.251242, -0.877324, 0.155215, 0.476354, 0.647789, -0.804048, -0.911835, -0.382919, 0.969391, -0.430602, -0.397464, 0.123372, -0.285586, 0.00883033, -0.922292, 0.053727, -0.517341, -0.0384428, -0.791398, -0.48382, 0.189965, 0.0602021, -0.0191139, 0.268924, 0.552176, -0.876933, -0.158462, 0.0140146, -0.115723, -0.619262, -0.0268152, -0.786051, -0.416194, -1.09104, 0.958563],
          "bias": -0.788743
        },
        {
          "weights": [-0.561253, -0.91474, -0.107049, -0.687209, 0.0926746, 0.716383, 0.545948, 0.816213, -0.29315, 0.682918, -0.066907, 0.387738, -0.389538, 0.0902231, 0.784308, 0.944273, -0.7046, -0.382471, 0.0189278, 0.793479, -0.144337, -1.0418, -0.331954, 1.03882, -0.401807, 0.748307, -0.734044, 0.123217, 0.697949, -0.705779, 0.481187, -0.962109, -0.374463, -0.499288, -0.336639, 0.601384, -0.898024, 0.941961, 0.443246, 0.0375104, 0.393731, -0.576583, -0.805432, -0.937951, 0.430236, 0.797183, 1.14422, 0.667489, -0.567615, 0.038337, 0.347369, 0.319278, 0.204382, -0.932112, 0.53383, 0.873204, 0.917462, 0.780379, 0.149351, 0.520019, 1.02847, -0.510099, 0.895227, -0.53523],
          "bias": -0.0320953
        },
        {
          "weights": [-0.665231, -1.29216, -0.0116052, -0.909638, 0.526894, 1.0102, 0.865904, 0.612207, -1.02729, 1.11629, 0.180212, 1.16359, 0.829941, -0.368282, -0.40424, 0.114825, -0.755859, 0.878364, -1.06722, -0.494228, 0.230774, 0.786894, -0.909895, 0.188161, 0.00946232, -0.923394, -0.0617043, 0.384325, 0.742919, 0.572723, -0.594765, -1.06958, 0.700252, 0.613947, -0.361504, 0.195366, 0.446098, -1.00392, -0.206278, 0.831847, 0.834893, 1.00134, 0.6463, 0.704566, -0.564766, -1.00079, 0.0889828, -0.268332, -1.17214, -0.132705, 0.0304374, 0.194242, 0.000963946, 0.236265, -0.332833, -0.916176, 0.534687, 0.616868, 0.72186, 0.0361957, 0.158698, 0.909555, 0.581588, -0.460558],
          "bias": 0.477268
        },
        {
          "weights": [0.813771, 0.434116, -0.0884785, 0.898794, -0.731455, -0.438226, 0.985734, -1.12021, -0.877078, 0.847036, -0.490569, -0.608133, -0.516385, 0.219947, -0.589593, 0.668481, -0.669099, 0.773836, -0.512613, 0.834202, -0.748245, -0.553932, 0.200805, 0.800302, -0.91889, -0.334647, -0.199856, -1.00576, -0.871803, 0.439349, 0.684139, -1.01809, 0.12929, -0.264929, -0.813149, 0.307165, 0.312942, -0.932373, 0.338963, 0.703014, 0.809427, -0.913897, -1.0834, -0.524677, 0.281977, -0.616676, -0.690196, 0.619959, -0.733693, -0.203197, 0.555774, -0.495603, 0.570872, -0.0224743, -0.351094, 0.812633, 0.832731, 0.361753, -0.900592, -1.01577, -0.11182, 0.597352, -0.710821, -0.949162],
          "bias": -0.768624
        },
        {
          "weights": [-0.400006, 0.56496, 0.83008, -0.341546, 0.177892, 0.566251, -0.309059, 0.169211, 0.514039, 0.367062, -0.490398, 1.12994, 0.575379, -0.854294, -0.487513, -0.443666, 1.03437, 0.143604, -0.905227, 0.182722, 0.699311, 0.989505, -0.0013448, 0.312856, 1.05994, 0.306159, -0.79542, 0.717388, 0.57251, -0.547752, -0.966652, -0.971712, 1.08213, 0.890124, -0.201376, 0.223822, 0.304488, 0.257874, -0.717808, -0.138771, -0.537244, -0.366644, -0.123151, 0.938277, -0.31195, 0.137582, -0.483031, -0.330602, -0.808612, -0.52567, 0.627101, 0.952466, -0.577664, -0.495452, 0.172036, -0.578623, 0.766018, 0.433927, 1.06447, 0.19946, 0.766687, -0.909012, 0.349471, 0.591903],
          "bias": 1.03783
        },
        {
          "weights": [0.81425, -0.937046, -0.0483746, -0.137749, -0.229922, 0.821105, 0.598895, -0.103849, -0.684063, 0.64368, 0.820403, 0.882228, 0.481679, -0.859279, 0.950402, -0.677927, 0.856458, 0.618207, -0.873365, -0.584382, -0.307639, -0.614469, -1.35456, -0.807025, -0.317915, 0.236412, 0.545986, -0.471032, -0.687241, 0.183729, -0.268384, -0.953765, 0.95259, 1.02499, 0.778421, -0.542027, 0.717839, -0.129643, 0.579259, -0.290561, -0.916685, 0.777692, -0.979259, -1.12484, 0.776563, -1.16825, -0.375917, 0.611251, 0.652022, -0.413217, -0.997909, -0.631556, 0.74362, -0.963741, 0.28273, -0.270544, 0.711186, -0.316049, 0.883002, -1.10033, -1.07428, -0.872059, -0.14624, 0.690591],
          "bias": -1.01457
        },
        {
          "weights": [-0.508704, -0.606047, -0.884344, 0.366916, -0.732973, -0.308011, 0.872147, 0.717389, -0.259301, 1.13969, 0.593077, -0.00793313, -0.569832, 0.208684, -0.0733671, 0.375642, 0.786043, 0.640956, 0.0792696, -0.734335, -0.398224, 0.857781, 0.960166, 0.542866, 0.4942, -0.473911, 0.442207, 0.760896, 0.264976, 0.479414, 0.817186, 0.534836, 0.952156, 0.974323, 0.0592438, 1.20502, -0.537664, -0.406089, 0.745787, 0.24178, -0.485477, 0.0831379, 1.10659, -0.217014, -0.830881, -0.339465, 1.18461, 0.895003, -0.844888, 0.0707237, 0.82909, -0.140846, -0.168438, 0.579155, -0.769061, -0.789013, 1.04506, 0.778476, 0.833193, 0.0816049, 0.0729246, 0.691191, -0.223417, -0.337038],
          "bias": 0.764908
        },
        {
          "weights": [0.211911, -0.892618, 0.686981, 0.761629, 0.827968, -0.24296, -0.660671, -0.55797, -0.413237, 0.0788754, -0.220731, 0.405729, -0.321414, -0.469612, 0.483628, -0.971939, -0.912687, -0.799038, -0.531314, -1.28031, -0.648444, -0.611304, 0.43713, -1.15668, -0.694717, -0.330768, -0.346058, -1.19844, 0.267389, 0.190047, 0.738112, -0.352234, 0.775773, 0.693535, -0.0633896, 0.408226, -0.40438, 0.240412, -0.749219, 0.682958, -0.813696, 0.634388, -0.19364, 0.322242, -0.79243, -0.439877, 0.663912, -0.689041, 0.0753128, -0.787944, -0.600965, 0.332837, 0.29567, -0.649921, 0.940754, -1.02453, 0.437839, -0.628629, -0.578893, -0.142081, -1.19949, -1.2041, -0.933636, -1.16278],
          "bias": 0.254847
        },
        {
          "weights": [0.10107, 0.909525, -0.649499, -0.437306, -0.578522, -1.11079, -0.00992528, -1.00871, 0.135677, -0.458911, -0.710118, -1.10399, -0.751927, 0.139302, 0.182753, -0.122299, 0.639404, 0.110735, -0.569636, -0.694963, 0.0300494, -0.560141, -0.896697, 0.610564, -0.267184, 0.302488, 0.936992, -0.186245, 0.697071, -1.06546, -0.281447, -0.019806, -1.14288, 0.0915676, 0.490637, -0.756838, 0.177511, -0.250634, -0.553733, -0.65499, 0.414218, 0.0347547, -0.684483, 0.874519, -0.693663, 0.806438, -0.226417, -1.03259, 0.0977933, 0.356271, -0.404638, -0.980572, -1.03675, -0.089528, 0.871983, -0.159297, -0.670032, 0.69639, 0.850613, -0.773971, -1.21077, -0.480529, 0.158767, -1.01251],
          "bias": 0.512486
        },
        {
          "weights": [-0.202684, -0.172177, -0.110505, 0.846437, 0.117047, 0.127178, 0.0127857, -0.674711, 0.913761, -0.184412, -0.402579, 0.486999, -1.10377, 0.129017, -0.366347, 0.38705, 0.38785, 0.016289, 0.791373, -0.725366, 0.089099, -0.42756, 0.105544, -0.334553, -0.660336, 0.0636051, 0.0815243, 0.0959052, -0.324893, -0.0751581, 0.0955745, 0.826212, 0.532584, -1.10843, 0.212509, -0.435087, 0.423345, -0.0487551, 0.23898, 0.134769, -0.919053, -0.708085, -0.0702707, -0.701992, 0.765681, -0.843506, 0.55149, 0.116167, 0.513384, 0.647651, -0.991252, -0.670198, -0.720496, 0.357832, 0.205676, -0.191307, -0.530827, -0.903421, -0.940766, 0.604918, 0.260351, 0.202199, -0.0105442, 0.512716],
          "bias": -0.0230833
        },
        {
          "weights": [-0.189168, -0.243761, -0.3319, 0.759275, -0.533944, -0.998684, 0.835048, 0.0666709, 0.335721, -0.868065, -0.221372, 0.509204, -0.901739, -0.69087, -0.171838, 0.880313, -0.755042, 0.315809, -0.67243, 0.502596, -0.181852, 0.297167, -0.722539, 0.272879, 0.594524, 0.736369, 0.132879, -0.0657777, 0.154556, -0.362922, -0.594554, -0.897125, 0.445515, 0.118374, 0.876981, -1.11542, 0.283541, 0.899701, 0.133298, -0.320866, -0.888363, -0.829145, -0.767974, -0.600646, -0.412629, 0.301433, -0.676712, -0.142293, -0.225425, -0.23159, -0.376822, 0.510392, -0.762202, 0.0827597, 0.0143722, -1.04139, -0.0489255, -0.943905, 0.0815914, -0.753672, -0.179545, 0.440435, -0.636456, -0.456723],
          "bias": -0.5236
        },
        {
          "weights": [-0.49267, -0.407952, -1.05839, -0.631908, -0.814668, -0.244575, -0.298326, -0.666096, 0.0825665, 0.226313, 0.0128451, -0.359732, 0.517949, -1.04121, 0.37531, -0.484918, -0.261141, -0.0492612, -0.37205, 0.895796, -0.968564, -0.307991, -0.201907, -0.597231, -1.04042, 0.278417, 0.357876, 0.425507, 0.749582, -0.980945, -0.795066, -0.77772, -0.145225, -0.715439, -0.0848316, -0.0150467, -0.00357214, 0.413482, 0.386878, -0.678257, -0.504332, -0.483884, -0.217513, -0.88711, -0.588325, -0.905227, -0.216882, 0.158183, 0.0811049, 0.358796, 0.0372032, 0.14527, -0.704772, -1.04341, 0.784851, -0.652178, 0.387834, 0.109979, 0.976622, 0.0716371, 0.149738, -0.950567, 0.626879, -1.07643],
          "bias": -0.719915
        },
        {
          "weights": [-0.80201, 0.308466, 0.346267, 1.0266, -0.978278, 0.302548, -0.828772, -0.423291, -0.51214, -0.813522, -0.0856035, -0.82575, 0.156997, -0.37173, 0.478792, -0.464409, 0.216732, 0.119514, 0.429575, 0.263874, -0.0779489, 0.574824, 0.229068, 0.526491, 0.161572, -1.00487, 0.184256, 0.468071, -1.04124, -0.103732, 0.98256, -0.426454, -1.24589, 0.139519, -1.15732, -1.2118, -0.0355103, -0.0266757, -0.297771, 0.0262565, 0.649369, -0.974386, -1.25406, 0.081532, 0.0920261, 0.935207, 0.350285, -0.72116, 0.365535, 0.181308, -0.734862, 0.984619, -0.41543, 0.63978, 0.530959, -1.13745, 0.575671, -0.442222, 0.317753, 1.0742, -1.29078, 0.545059, -1.10667, -0.65443],
          "bias": -0.392979
        },
        {
          "weights": [-0.312396, -0.112861, 0.904571, 0.573594, -0.836872, 0.371689, 0.165101, -0.321589, 0.439777, -0.777143, 0.642359, 0.349462, -0.853433, -0.789542, -0.554049, 0.297652, -0.445316, -0.630799, 1.03296, 0.971892, -0.716026, -0.798995, 0.795043, 0.368664, 0.900756, 0.620361, 0.588062, 0.500283, 0.90445, 0.954796, -0.66971, -0.454551, -0.203636, -0.747882, -0.926275, -0.034491, 0.611581, 0.217034, 0.619414, 0.00297102, 0.397338, 0.203868, -0.595456, 0.518194, 0.423998, -0.245759, -0.217561, 0.927847, 0.0737481, -0.214304, 0.858162, 0.37004, -0.126211, 0.551805, -0.355135, -0.265381, 0.118088, -0.729916, -0.853085, -0.00408321, -0.830744, -0.4086, 0.503879, -0.0788225],
          "bias": -0.115808
        },
        {
          "weights": [0.561344, 0.99936, -0.459143, -0.193439, 0.349002, 0.516539, -0.952508, -0.323482, 0.882031, 0.499541, 0.978732, -0.568931, -0.56749, 0.910521, 0.543713, 0.0221014, 0.740415, -0.107447, 1.09872, 0.254578, 0.530387, -0.166308, -0.488437, 0.678271, -0.146965, 0.332459, 0.848215, 0.450565, -0.191246, -0.279246, -0.893068, -0.657538, -0.5591, -0.514869, -0.213348, 0.834116, 0.976601, -0.021414, -0.630501, 0.571212, -0.424765, -0.878084, -0.830576, -0.166596, -0.933459, 0.664056, 0.66687, 0.763895, -0.532702, 0.760648, -0.0740869, 0.984178, -0.738071, 0.223276, 0.314779, -0.0310358, -0.666928, 0.230503, -0.876424, 0.16135, 0.864319, -0.608901, 0.138812, -0.724646],
          "bias": -0.027553
        },
        {
          "weights": [0.897631, 0.977837, -0.299211, -0.17079, -0.868028, -0.703895, 0.160079, -0.645535, -0.6064, 0.826751, -0.677088, 0.837243, 0.595656, 1.00435, -0.82534, 0.162831, -0.265115, 0.954845, 0.44735, 0.760304, 0.343944, -0.640776, -0.906236, -0.593926, -0.494145, -0.0689828, -0.785491, -0.181834, -0.960047, -0.660118, 0.577717, 0.973576, -0.786152, -0.771959, -0.353772, -0.654911, -0.429781, 0.935329, -0.289806, -0.138049, 0.822749, 0.0332278, -0.213415, 0.415849, 0.0908966, 0.0172108, -0.489226, 0.801806, -0.0128644, 0.994278, 0.618313, -0.706742, -0.733655, 0.681657, -0.368423, -0.241563, -0.444746, -0.158997, 0.514992, -0.339244, 0.18692, 0.151684, -0.518125, 0.481576],
          "bias": 0.390994
        },
        {
          "weights": [0.16811, 1.1722, 0.980192, 0.280744, -0.529955, -0.222196, -0.269283, 0.701577, 0.780413, -0.976825, -0.357048, -0.579436, -0.172976, -0.303054, 0.437142, -0.338437, -0.911465, 0.839767, 0.340555, 0.657735, -0.428645, 1.04725, -0.414276, 0.162667, 0.395667, -0.162092, -0.349939, -0.345559, 0.527937, -1.03319, 0.937514, -0.159044, 0.732068, 0.749114, 0.507527, -0.780945, -0.236579, -0.219007, -1.00585, -0.869141, 0.0494637, -0.328088, -0.0486726, 0.902842, 0.626308, -0.37438, -0.700669, 0.622638, -0.450096, 0.802884, 0.55235, -0.0382144, 0.497298, 1.00214, -1.13045, -0.160696, -0.349183, -0.494388, 0.25521, -0.565083, -0.506129, 0.492636, -0.330947, -0.382161],
          "bias": 0.294788
        },
        {
          "weights": [-0.565925, -0.0117628, 0.917337, 0.153562, 0.062493, -0.808761, -1.00554, -1.02808, 0.236642, 0.725824, 0.489139, 0.675022, -0.69771, 0.267931, -1.03382, -0.992406, -0.461972, -0.201266, 0.588723, -0.690853, -0.0721987, -0.551503, 0.104237, 0.443691, -1.09112, 0.164385, -0.787448, 0.35211, -0.957086, -0.350185, -0.245075, -0.389429, 0.642739, -0.306044, 0.715022, -0.320186, 0.048279, 0.924545, -0.181969, -0.703116, 0.741862, -0.46381, -0.95296, -0.789253, 0.920646, -0.756754, -0.770363, -0.531662, 0.185386, -1.0649, 0.0314355, -0.974179, -0.502225, -0.719065, 0.644892, -0.488016, 0.537654, 0.776172, -0.995619, 0.729956, -0.461567, -0.252787, -0.706406, -0.543131],
          "bias": 0.373691
        },
        {
          "weights": [-0.713651, 0.616754, -0.301194, -0.705507, -0.553411, 0.0418046, -1.01112, 0.211439, 0.328799, -0.788512, 0.048978, 0.474499, -0.246577, 0.75369, -0.307927, -0.363981, -0.191661, -0.0996842, 0.403368, 0.101723, -0.370242, 1.0295, -0.0867802, -0.490608, 0.993115, -0.45049, 0.35734, -0.12243, 0.0483646, 0.835684, -0.667429, 0.367315, 0.221794, -0.0739087, 0.368871, 0.748422, -0.969514, 0.548119, -0.0957361, 0.13303, 0.900422, 0.851096, -0.191364, -0.42733, 0.673346, 0.559877, 0.0672891, -0.518131, -0.585427, -0.468411, 0.616907, 0.0234157, -0.686507, -0.595308, 0.308936, -0.785018, -0.177543, -0.292055, -0.103592, 0.922969, -0.473596, 0.400397, -0.0152392, 0.842704],
          "bias": -0.618748
        },
        {
          "weights": [-0.589349, 0.736422, -0.645651, 1.0607, -0.701266, 0.465347, 0.651413, -0.61474, -0.613425, -0.960998, -1.0613, 0.610772, 0.401875, -0.447517, -1.01946, 0.706047, 0.883773, -0.00859441, -0.712619, -0.880325, -0.565451, -0.524492, 0.170401, -0.0732993, 0.316448, -0.310927, 0.628612, -0.239276, 0.815582, 0.290955, 0.069352, -0.632206, -0.25772, 0.271395, -0.996857, 0.0795686, -0.0951279, 1.05711, 0.507366, 0.0132146, -0.667132, 0.478651, -0.115536, 0.740543, -0.809262, 0.112076, 0.269893, -0.93119, -0.828983, 0.703519, -0.604938, -0.501398, 0.979125, 0.5339, 0.276969, 0.266645, -0.893205, -0.119854, -1.10676, 1.11636, -0.768925, 0.0982639, -0.947413, 0.269926],
          "bias": -0.61828
        },
        {
          "weights": [-0.532942, -0.531692, 0.310412, -0.597238, -0.730316, -0.430439, -0.304976, 0.907708, 0.458397, -0.581593, 1.06257, -0.400479, 0.83496, -0.942619, -0.401704, 0.493641, -0.448854, -0.113523, 0.389901, 0.917049, -0.685355, -0.220682, 0.966447, 0.433743, -0.106997, 0.970469, 0.703866, 0.936681, -0.918671, -0.0162755, -0.726828, -0.571061, 0.524734, 0.623632, -0.0625474, 0.74869, -0.911906, 0.451117, 0.591633, 0.592005, 0.718827, 0.555512, 1.10028, 0.501091, 0.559713, -0.506212, 0.0220569, 1.05269, 0.331689, -0.701154, 0.809438, 0.68386, 0.0644604, 0.680497, 0.0681196, 0.921704, 0.636658, -0.188049, 0.818544, 0.6098, 0.696198, -0.904587, -0.845595, 0.0369776],
          "bias": 0.76411
        },
        {
          "weights": [-0.122056, -0.378035, 0.757954, -0.73591, -0.915599, 0.271503, 1.00734, 0.578932, 0.236604, 0.503569, 0.0985819, 0.712603, -0.552583, 0.0313399, 0.0568222, -0.338588, -0.137, -0.291753, 0.696309, -0.407269, 0.67034, 0.58264, -0.826902, -0.619601, 0.304007, 0.813268, 0.93451, 0.354357, 0.830252, -0.0272985, -0.068813, -0.341733, 0.558296, -0.339595, -0.0827691, 0.706508, 0.878184, -0.14863, 0.188922, 0.0762408, -0.63335, -0.842918, -0.202095, -0.286655, 0.139152, 0.783641, 0.355735, 1.03605, -0.590739, 0.0240931, -0.4799, -0.86843, -0.479739, -0.384813, -0.604268, 0.750879, -0.615956, -0.616996, 0.0121551, -0.863923, 0.314078, 0.977692, -0.226861, -0.227692],
          "bias": -0.323539
        },
        {
          "weights": [0.420154, -0.863419, -0.733163, -0.641644, 0.25972, 0.234974, -0.338991, 0.226766, -0.975012, 0.290178, -0.50687, -1.18146, -0.583535, -0.416665, -0.817195, 0.616331, -0.213158, -0.703218, -0.996356, 0.363559, -0.24899, 0.572534, -1.33983, -0.0814847, -0.338806, -1.24407, -0.761584, -0.405606, -0.418474, -0.135068, 0.557154, -0.77137, 0.254543, 0.960919, -0.201867, -0.633159, 0.419848, 0.665829, -1.03964, 0.714399, -0.0179159, -0.00767761, 0.434233, 0.794858, 0.708687, -0.997987, 0.580853, -0.486534, -0.378868, -1.26239, -0.686868, 0.225065, 0.806484, -0.597082, -0.27849, -0.226807, -0.53775, -0.249803, 0.851148, 0.284755, -1.14388, 0.158906, -1.2541, 0.514247],
          "bias": -0.0748362
        },
        {
          "weights": [-0.303247, -0.501486, -0.332352, -0.413392, -0.286855, -0.721788, 0.673388, -1.28191, -0.779082, 0.57412, 0.506624, -0.675138, 0.286258, -0.374057, 0.0150931, 0.423228, -0.199857, -0.241544, 0.473475, 0.374405, 0.599417, -0.755665, -0.777613, -0.510451, -0.910521, -1.36887, -0.00750352, 0.509176, -1.17766, -0.46691, 0.192602, -0.163057, 0.105496, -1.06599, 0.402792, -1.24614, -0.440837, 0.51166, -1.13577, -0.112187, 0.280704, -1.07217, 0.316246, -0.0331297, -0.222278, -0.130796, -0.53762, 0.623934, 0.953363, -0.799453, 0.573939, 0.370242, -0.210091, -0.802854, -0.660068, 0.154303, -0.926874, 0.128357, 0.0542218, -0.767735, -1.05097, -0.858657, 0.0563562, 0.651089],
          "bias": -1.11073
        },
        {
          "weights": [-0.182179, -0.959665, -0.218603, -0.460433, -0.689828, -1.3078, -1.08682, -0.664045, 0.528081, -0.0575499, 0.213198, -0.486548, -1.38978, 0.463969, -0.5467, -0.782927, -0.15327, -0.751948, 0.198673, 0.124847, -0.164873, -0.601204, 0.551482, -0.792123, 0.616899, -1.15071, -0.152328, -1.01726, 0.417242, -0.501081, -0.256507, -0.430789, -0.301671, 0.63616, 0.181594, -0.105625, 0.669695, 0.49766, -1.32537, 0.397071, -0.406256, 0.52697, -1.06262, -0.335467, 0.201333, -0.0522394, 0.00662063, -0.914041, 0.562806, -0.535675, -1.18363, -0.795801, 0.326808, 0.85194, 0.0121834, 0.279663, -1.00073, -1.38184, 0.756327, -1.22694, -0.564191, -0.69133, -0.565567, 0.731073],
          "bias": -1.27999
        },
        {
          "weights": [-1.03094, 0.502022, -1.16393, 0.764044, 0.410078, 0.176434, -0.633558, 0.110603, 0.777915, 0.108266, -0.648917, -0.285395, -0.54183, 0.207322, -0.654784, 0.26508, -0.177495, 0.144461, 0.0164326, -0.213433, -0.617863, -0.65338, 0.348784, -0.835086, -0.890099, 0.100698, 0.451017, -0.253688, -0.856256, 0.169692, 0.296278, -0.516664, -0.38276, 0.149405, -0.96443, -1.01588, -0.235467, 0.0188366, -1.48587, -0.482663, -0.580832, -0.560726, 0.473493, 0.286022, 0.95711, -0.545572, -0.456884, -0.187697, 0.955201, -1.112, -0.725096, -0.894339, -0.525124, -1.01126, -0.32519, -0.159157, 0.288039, -1.08101, -1.09173, 0.846956, 0.392717, 0.197651, -0.877365, -0.249066],
          "bias": -0.824675
        },
        {
          "weights": [-0.11258, 0.813731, 0.56316, 1.08897, 0.544568, -0.765814, -0.564085, -0.530482, -0.726325, 0.750029, -0.699044, -0.403258, -0.0472101, 0.68949, -0.432098, -0.148906, -1.01976, 0.0494247, 0.83616, -1.03882, 0.990848, -0.0745746, 0.81754, -0.758723, -0.132519, 0.490919, -0.62586, -0.639358, -0.870358, 0.171613, -0.0537735, 0.136616, -0.363635, -0.664483, -0.264054, -0.749775, -0.277873, 0.573955, -0.283798, -0.342996, 0.573142, -0.0238423, 0.560788, -0.521028, -0.181124, -0.667561, 0.113992, -0.213825, 0.397722, 0.0879176, -0.0887345, 0.298783, 0.712182, -0.374174, 0.292419, -0.496442, 0.943132, 0.673468, -0.35638, 1.2471, -0.12558, 0.793428, -0.114081, 0.771805],
          "bias": -0.828791
        },
        {
          "weights": [0.833013, -0.733342, -0.191005, 0.50947, -0.224262, 0.528857, -0.294609, -0.991829, 0.272286, -0.0165206, -0.289011, 0.273028, -0.582239, 0.703617, -0.457802, 0.370772, -0.710666, 0.777505, 0.334369, -0.333326, 0.307448, 0.805544, -0.133012, -0.163054, -0.494643, -0.367035, 1.00436, -0.666789, 0.758402, 0.563425, -0.456459, 0.770721, 0.614124, 0.259859, -0.107979, -0.669142, 0.00654802, 1.0547, -0.499018, -0.932339, 0.214948, 0.401916, 0.571013, 0.771203, 0.323209, -0.597705, -0.00107964, 0.542767, -0.652102, -0.510351, -0.471995, 0.486861, -0.793355, 0.443447, -0.674868, -0.223254, -0.980167, -0.757619, 0.0934263, 1.05213, -1.10382, 0.736858, 0.453348, 0.900997],
          "bias": -0.0310532
        },
        {
          "weights": [-0.543394, -0.438132, -1.10579, -0.388199, 0.0575819, -1.0689, 0.613094, -0.374725, 0.828254, 0.23575, -1.11265, -0.971524, -0.498422, 0.868436, -0.788543, 0.0716489, -1.04006, -1.13969, 0.504823, 0.272062, -0.565872, -0.78865, 0.626655, -0.414004, 0.395102, 0.335723, 0.00707974, 0.221314, 0.164754, -0.298702, -0.378675, -1.02912, 0.253039, -0.452691, -0.559286, -0.738418, -0.128371, -0.40412, 0.285237, -0.276648, -0.910335, -1.27224, -0.0649838, -0.0142589, 0.865041, 0.741745, -0.92255, -1.13294, 0.939248, -1.11601, 0.764705, -0.83545, -0.62894, 0.769126, 0.175372, -0.974923, 0.313265, -1.02176, 0.587661, -0.139396, -0.0237327, -0.843946, -0.305167, -0.097668],
          "bias": -0.473117
        },
        {
          "weights": [0.580404, 1.24836, 0.867482, -0.454027, 0.423702, -0.45597, -0.605051, 0.599258, -0.765992, 0.308673, 0.34504, -1.35022, -0.931254, 1.06606, -1.35174, -0.990586, 0.471793, -0.593981, 0.0836026, 0.236603, 0.883842, 0.198058, 0.331687, -1.12532, -0.295713, -1.1678, 0.825669, 0.235172, 0.216623, -0.395899, -0.628965, 0.222739, -0.581022, -0.925366, 0.0839779, -1.07263, 0.128356, -0.618859, -1.15991, -0.0209354, -0.78866, -1.42385, 0.17393, -0.462978, 1.03439, 0.54173, -0.690751, 0.54279, 1.20488, 0.813822, 0.483897, 0.835962, -0.154085, -0.0149023, -1.2556, 0.656766, -0.220993, 0.43071, -0.110956, -0.50388, -0.685967, 0.506733, 0.0234035, 0.587585],
          "bias": 0.492179
        }
      ]
    },
    {
      "activation": "sigmoid",
      "nodes": [
        {
          "weights": [0.926786, -1.81269, -0.0184038, -0.561545, -0.75603, -0.711945, 0.0698045, -2.77268, 0.108138, -1.72121, -0.490011, -0.6263, -0.57909, -0.525434, 0.120976, 0.686481, 0.780763, 0.2518, 0.816339, -0.444069, 0.850417, 0.314699, -0.111221, 0.267671, -1.46278, -0.961986, -1.18899, -0.839044, 0.772209, 0.102882, -0.849086, 0.492996],
          "bias": 0.0161155
        },
        {
          "weights": [0.490573, 2.17029, -0.472061, 0.00998253, 1.15809, 0.173117, 0.0566843, 0.537554, 0.113473, -0.115429, -0.451782, -1.82905, -0.359164, 0.273954, -1.84814, -0.566843, -0.373116, -0.367486, -1.83242, -0.48575, -0.386131, -0.658969, -0.141867, 0.516563, -0.450066, -0.743577, -0.680727, -1.12211, -0.748238, -1.53258, -0.929641, -1.51438],
          "bias": -1.05616
        },
        {
          "weights": [-2.31361, -0.693522, -0.801328, 0.8744, -2.04104, 0.72403, 0.196468, 1.53151, -0.892372, 1.33115, 0.10494, 1.70833, -0.686728, -0.202056, 0.219527, -0.248428, 0.336365, 0.536115, 0.479932, -0.287323, -1.00081, 0.202088, -0.193967, -1.74442, 0.85839, -0.111098, 0.831832, -0.636494, 0.068939, 1.74086, -0.232983, -0.652547],
          "bias": 0.500731
        }
      ]
    }
  ]
}
